digraph Tree {
node [shape=box] ;
0 [label="duration <= 510.5\ngini = 0.2061\nsamples = 31647\nvalue = [27956, 3691]"] ;
1 [label="poutcome_success <= 0.5\ngini = 0.1407\nsamples = 28080\nvalue = [25942, 2138]"] ;
0 -> 1 [labeldistance=2.5, labelangle=45, headlabel="True"] ;
2 [label="age <= 60.5\ngini = 0.1096\nsamples = 27184\nvalue = [25602, 1582]"] ;
1 -> 2 ;
3 [label="gini = 0.0982\nsamples = 26603\nvalue = [25226, 1377]"] ;
2 -> 3 ;
4 [label="gini = 0.4567\nsamples = 581\nvalue = [376, 205]"] ;
2 -> 4 ;
5 [label="duration <= 136.5\ngini = 0.4709\nsamples = 896\nvalue = [340, 556]"] ;
1 -> 5 ;
6 [label="gini = 0.3612\nsamples = 186\nvalue = [142, 44]"] ;
5 -> 6 ;
7 [label="gini = 0.4022\nsamples = 710\nvalue = [198, 512]"] ;
5 -> 7 ;
8 [label="duration <= 853.5\ngini = 0.4916\nsamples = 3567\nvalue = [2014, 1553]"] ;
0 -> 8 [labeldistance=2.5, labelangle=-45, headlabel="False"] ;
9 [label="poutcome_success <= 0.5\ngini = 0.461\nsamples = 2423\nvalue = [1550, 873]"] ;
8 -> 9 ;
10 [label="gini = 0.4487\nsamples = 2313\nvalue = [1527, 786]"] ;
9 -> 10 ;
11 [label="gini = 0.3307\nsamples = 110\nvalue = [23, 87]"] ;
9 -> 11 ;
12 [label="contact_unknown <= 0.5\ngini = 0.4822\nsamples = 1144\nvalue = [464, 680]"] ;
8 -> 12 ;
13 [label="gini = 0.4641\nsamples = 844\nvalue = [309, 535]"] ;
12 -> 13 ;
14 [label="gini = 0.4994\nsamples = 300\nvalue = [155, 145]"] ;
12 -> 14 ;
}